<?xml version="1.0"?>
<opencv_storage>
<cascade>
  <stageType>BOOST</stageType>
  <featureType>LBP</featureType>
  <height>30</height>
  <width>30</width>
  <stageParams>
    <boostType>GAB</boostType>
    <minHitRate>9.9500000476837158e-01</minHitRate>
    <maxFalseAlarm>5.0000000000000000e-01</maxFalseAlarm>
    <weightTrimRate>9.4999999999999996e-01</weightTrimRate>
    <maxDepth>1</maxDepth>
    <maxWeakCount>100</maxWeakCount></stageParams>
  <featureParams>
    <maxCatCount>256</maxCatCount>
    <featSize>1</featSize></featureParams>
  <stageNum>6</stageNum>
  <stages>
    <!-- stage 0 -->
    <_>
      <maxWeakCount>1</maxWeakCount>
      <stageThreshold>8.0645161867141724e-01</stageThreshold>
      <weakClassifiers>
        <_>
          <internalNodes>
            0 -1 3 -180235809 -782204716 -2147448813 -712441775
            -796669765 -1165451263 -1962833777 -169620817</internalNodes>
          <leafValues>
            -1. 8.0645161867141724e-01</leafValues></_></weakClassifiers></_>
    <!-- stage 1 -->
    <_>
      <maxWeakCount>2</maxWeakCount>
      <stageThreshold>-1.2420471012592316e-01</stageThreshold>
      <weakClassifiers>
        <_>
          <internalNodes>
            0 -1 6 -787351553 1360564819 1359544619 1996587113
            1627439259 805306510 -780041526 -73428277</internalNodes>
          <leafValues>
            -9.8791539669036865e-01 9.2592591047286987e-01</leafValues></_>
        <_>
          <internalNodes>
            0 -1 9 -108268713 -250543782 -1073737469 386107795
            -536833905 -1862098816 -511628917 -36715605</internalNodes>
          <leafValues>
            -9.9362605810165405e-01 8.6371070146560669e-01</leafValues></_></weakClassifiers></_>
    <!-- stage 2 -->
    <_>
      <maxWeakCount>2</maxWeakCount>
      <stageThreshold>-2.3453496396541595e-01</stageThreshold>
      <weakClassifiers>
        <_>
          <internalNodes>
            0 -1 4 1901516285 1610060211 -1021997033 -540683867
            -908819285 -74346320 -1568163665 -74521983</internalNodes>
          <leafValues>
            -9.7005987167358398e-01 9.1666668653488159e-01</leafValues></_>
        <_>
          <internalNodes>
            0 -1 1 -644746273 -786886207 411058569 -1828335613
            1376090843 -1072987455 -1433705589 -71716885</internalNodes>
          <leafValues>
            -1. 7.3552489280700684e-01</leafValues></_></weakClassifiers></_>
    <!-- stage 3 -->
    <_>
      <maxWeakCount>2</maxWeakCount>
      <stageThreshold>-1.1506202816963196e-01</stageThreshold>
      <weakClassifiers>
        <_>
          <internalNodes>
            0 -1 2 328323327 1545816225 1141076631 -181059131 1484818847
            -1182752605 770762431 -74460277</internalNodes>
          <leafValues>
            -9.8187309503555298e-01 8.5185188055038452e-01</leafValues></_>
        <_>
          <internalNodes>
            0 -1 10 -908603153 1426440207 54526533 -1122123339
            -1945075030 -1985855483 -1567626977 -269490185</internalNodes>
          <leafValues>
            -9.6691387891769409e-01 9.1333544254302979e-01</leafValues></_></weakClassifiers></_>
    <!-- stage 4 -->
    <_>
      <maxWeakCount>2</maxWeakCount>
      <stageThreshold>-3.3362963795661926e-01</stageThreshold>
      <weakClassifiers>
        <_>
          <internalNodes>
            0 -1 5 622268895 -1082054399 -1858060865 -36974245
            -1575451687 -1147392383 -1182211681 -1198813441</internalNodes>
          <leafValues>
            -9.9386501312255859e-01 6.8750000000000000e-01</leafValues></_>
        <_>
          <internalNodes>
            0 -1 0 -245891105 -250506989 1695137793 -423239161
            -301734773 -939456384 -792334709 2144336783</internalNodes>
          <leafValues>
            -1. 6.6023540496826172e-01</leafValues></_></weakClassifiers></_>
    <!-- stage 5 -->
    <_>
      <maxWeakCount>2</maxWeakCount>
      <stageThreshold>-2.6828059554100037e-01</stageThreshold>
      <weakClassifiers>
        <_>
          <internalNodes>
            0 -1 7 -476064289 1931149437 -787770129 -82595301
            -2090611473 -1358395252 -451089496 -286274552</internalNodes>
          <leafValues>
            -9.8176294565200806e-01 7.2413790225982666e-01</leafValues></_>
        <_>
          <internalNodes>
            0 -1 8 -67373121 -215940789 -758902777 -2062728033
            -804681765 -395214848 -1736407301 -302522129</internalNodes>
          <leafValues>
            -9.9241852760314941e-01 7.3521196842193604e-01</leafValues></_></weakClassifiers></_></stages>
  <features>
    <_>
      <rect>
        0 5 2 4</rect></_>
    <_>
      <rect>
        0 9 6 7</rect></_>
    <_>
      <rect>
        0 12 7 6</rect></_>
    <_>
      <rect>
        2 0 8 5</rect></_>
    <_>
      <rect>
        5 13 7 4</rect></_>
    <_>
      <rect>
        6 2 8 4</rect></_>
    <_>
      <rect>
        10 12 6 6</rect></_>
    <_>
      <rect>
        11 6 4 3</rect></_>
    <_>
      <rect>
        14 4 5 5</rect></_>
    <_>
      <rect>
        14 10 5 6</rect></_>
    <_>
      <rect>
        15 4 5 8</rect></_></features></cascade>
</opencv_storage>
